digraph Tree {
node [shape=box, fontname="helvetica"] ;
edge [fontname="helvetica"] ;
0 [label="x[0] <= 0.5\ngini = 0.469\nsamples = 1047\nvalue = [654, 393]"] ;
1 [label="x[2] <= 2.5\ngini = 0.399\nsamples = 367\nvalue = [101, 266]"] ;
0 -> 1 [labeldistance=2.5, labelangle=45, headlabel="True"] ;
2 [label="x[1] <= 30.75\ngini = 0.378\nsamples = 352\nvalue = [89.0, 263.0]"] ;
1 -> 2 ;
3 [label="x[1] <= 24.5\ngini = 0.41\nsamples = 240\nvalue = [69, 171]"] ;
2 -> 3 ;
4 [label="x[1] <= 16.5\ngini = 0.345\nsamples = 131\nvalue = [29, 102]"] ;
3 -> 4 ;
5 [label="x[1] <= 14.75\ngini = 0.258\nsamples = 46\nvalue = [7, 39]"] ;
4 -> 5 ;
6 [label="x[1] <= 14.25\ngini = 0.327\nsamples = 34\nvalue = [7, 27]"] ;
5 -> 6 ;
7 [label="x[1] <= 3.5\ngini = 0.298\nsamples = 33\nvalue = [6, 27]"] ;
6 -> 7 ;
8 [label="x[1] <= 1.5\ngini = 0.408\nsamples = 14\nvalue = [4, 10]"] ;
7 -> 8 ;
9 [label="x[1] <= 0.958\ngini = 0.219\nsamples = 8\nvalue = [1, 7]"] ;
8 -> 9 ;
10 [label="gini = 0.0\nsamples = 3\nvalue = [0, 3]"] ;
9 -> 10 ;
11 [label="x[2] <= 0.5\ngini = 0.32\nsamples = 5\nvalue = [1, 4]"] ;
9 -> 11 ;
12 [label="gini = 0.0\nsamples = 1\nvalue = [0, 1]"] ;
11 -> 12 ;
13 [label="gini = 0.375\nsamples = 4\nvalue = [1, 3]"] ;
11 -> 13 ;
14 [label="x[1] <= 2.5\ngini = 0.5\nsamples = 6\nvalue = [3, 3]"] ;
8 -> 14 ;
15 [label="x[2] <= 0.5\ngini = 0.5\nsamples = 4\nvalue = [2, 2]"] ;
14 -> 15 ;
16 [label="gini = 0.5\nsamples = 2\nvalue = [1, 1]"] ;
15 -> 16 ;
17 [label="gini = 0.5\nsamples = 2\nvalue = [1, 1]"] ;
15 -> 17 ;
18 [label="gini = 0.5\nsamples = 2\nvalue = [1, 1]"] ;
14 -> 18 ;
19 [label="x[1] <= 8.5\ngini = 0.188\nsamples = 19\nvalue = [2, 17]"] ;
7 -> 19 ;
20 [label="gini = 0.0\nsamples = 10\nvalue = [0, 10]"] ;
19 -> 20 ;
21 [label="x[1] <= 11.0\ngini = 0.346\nsamples = 9\nvalue = [2, 7]"] ;
19 -> 21 ;
22 [label="x[2] <= 0.5\ngini = 0.444\nsamples = 3\nvalue = [2, 1]"] ;
21 -> 22 ;
23 [label="gini = 0.0\nsamples = 1\nvalue = [1, 0]"] ;
22 -> 23 ;
24 [label="gini = 0.5\nsamples = 2\nvalue = [1, 1]"] ;
22 -> 24 ;
25 [label="gini = 0.0\nsamples = 6\nvalue = [0, 6]"] ;
21 -> 25 ;
26 [label="gini = 0.0\nsamples = 1\nvalue = [1, 0]"] ;
6 -> 26 ;
27 [label="gini = 0.0\nsamples = 12\nvalue = [0, 12]"] ;
5 -> 27 ;
28 [label="x[2] <= 1.5\ngini = 0.384\nsamples = 85\nvalue = [22.0, 63.0]"] ;
4 -> 28 ;
29 [label="x[2] <= 0.5\ngini = 0.369\nsamples = 78\nvalue = [19, 59]"] ;
28 -> 29 ;
30 [label="x[1] <= 18.75\ngini = 0.41\nsamples = 59\nvalue = [17, 42]"] ;
29 -> 30 ;
31 [label="x[1] <= 18.25\ngini = 0.484\nsamples = 17\nvalue = [7, 10]"] ;
30 -> 31 ;
32 [label="x[1] <= 17.5\ngini = 0.469\nsamples = 16\nvalue = [6, 10]"] ;
31 -> 32 ;
33 [label="gini = 0.48\nsamples = 5\nvalue = [2, 3]"] ;
32 -> 33 ;
34 [label="gini = 0.463\nsamples = 11\nvalue = [4, 7]"] ;
32 -> 34 ;
35 [label="gini = 0.0\nsamples = 1\nvalue = [1, 0]"] ;
31 -> 35 ;
36 [label="x[1] <= 19.5\ngini = 0.363\nsamples = 42\nvalue = [10, 32]"] ;
30 -> 36 ;
37 [label="gini = 0.0\nsamples = 5\nvalue = [0, 5]"] ;
36 -> 37 ;
38 [label="x[1] <= 20.5\ngini = 0.394\nsamples = 37\nvalue = [10, 27]"] ;
36 -> 38 ;
39 [label="gini = 0.5\nsamples = 2\nvalue = [1, 1]"] ;
38 -> 39 ;
40 [label="x[1] <= 22.5\ngini = 0.382\nsamples = 35\nvalue = [9, 26]"] ;
38 -> 40 ;
41 [label="x[1] <= 21.5\ngini = 0.332\nsamples = 19\nvalue = [4, 15]"] ;
40 -> 41 ;
42 [label="gini = 0.32\nsamples = 5\nvalue = [1, 4]"] ;
41 -> 42 ;
43 [label="gini = 0.337\nsamples = 14\nvalue = [3, 11]"] ;
41 -> 43 ;
44 [label="x[1] <= 23.5\ngini = 0.43\nsamples = 16\nvalue = [5, 11]"] ;
40 -> 44 ;
45 [label="gini = 0.444\nsamples = 6\nvalue = [2, 4]"] ;
44 -> 45 ;
46 [label="gini = 0.42\nsamples = 10\nvalue = [3, 7]"] ;
44 -> 46 ;
47 [label="x[1] <= 21.5\ngini = 0.188\nsamples = 19\nvalue = [2, 17]"] ;
29 -> 47 ;
48 [label="x[1] <= 20.0\ngini = 0.32\nsamples = 10\nvalue = [2, 8]"] ;
47 -> 48 ;
49 [label="x[1] <= 18.5\ngini = 0.198\nsamples = 9\nvalue = [1, 8]"] ;
48 -> 49 ;
50 [label="gini = 0.0\nsamples = 5\nvalue = [0, 5]"] ;
49 -> 50 ;
51 [label="gini = 0.375\nsamples = 4\nvalue = [1, 3]"] ;
49 -> 51 ;
52 [label="gini = 0.0\nsamples = 1\nvalue = [1, 0]"] ;
48 -> 52 ;
53 [label="gini = 0.0\nsamples = 9\nvalue = [0, 9]"] ;
47 -> 53 ;
54 [label="x[1] <= 23.0\ngini = 0.49\nsamples = 7\nvalue = [3, 4]"] ;
28 -> 54 ;
55 [label="x[1] <= 21.5\ngini = 0.48\nsamples = 5\nvalue = [3, 2]"] ;
54 -> 55 ;
56 [label="x[1] <= 19.5\ngini = 0.5\nsamples = 4\nvalue = [2, 2]"] ;
55 -> 56 ;
57 [label="gini = 0.5\nsamples = 2\nvalue = [1, 1]"] ;
56 -> 57 ;
58 [label="gini = 0.5\nsamples = 2\nvalue = [1, 1]"] ;
56 -> 58 ;
59 [label="gini = 0.0\nsamples = 1\nvalue = [1, 0]"] ;
55 -> 59 ;
60 [label="gini = 0.0\nsamples = 2\nvalue = [0, 2]"] ;
54 -> 60 ;
61 [label="x[1] <= 25.5\ngini = 0.465\nsamples = 109\nvalue = [40, 69]"] ;
3 -> 61 ;
62 [label="x[1] <= 13.5\ngini = 0.444\nsamples = 6\nvalue = [4, 2]"] ;
61 -> 62 ;
63 [label="gini = 0.0\nsamples = 1\nvalue = [1, 0]"] ;
62 -> 63 ;
64 [label="x[2] <= 0.5\ngini = 0.48\nsamples = 5\nvalue = [3, 2]"] ;
62 -> 64 ;
65 [label="gini = 0.5\nsamples = 2\nvalue = [1, 1]"] ;
64 -> 65 ;
66 [label="gini = 0.444\nsamples = 3\nvalue = [2, 1]"] ;
64 -> 66 ;
67 [label="x[1] <= 27.5\ngini = 0.455\nsamples = 103\nvalue = [36, 67]"] ;
61 -> 67 ;
68 [label="x[2] <= 0.5\ngini = 0.337\nsamples = 14\nvalue = [3, 11]"] ;
67 -> 68 ;
69 [label="x[1] <= 26.5\ngini = 0.198\nsamples = 9\nvalue = [1, 8]"] ;
68 -> 69 ;
70 [label="gini = 0.32\nsamples = 5\nvalue = [1, 4]"] ;
69 -> 70 ;
71 [label="gini = 0.0\nsamples = 4\nvalue = [0, 4]"] ;
69 -> 71 ;
72 [label="x[1] <= 26.5\ngini = 0.48\nsamples = 5\nvalue = [2, 3]"] ;
68 -> 72 ;
73 [label="gini = 0.5\nsamples = 2\nvalue = [1, 1]"] ;
72 -> 73 ;
74 [label="gini = 0.444\nsamples = 3\nvalue = [1, 2]"] ;
72 -> 74 ;
75 [label="x[1] <= 30.75\ngini = 0.467\nsamples = 89\nvalue = [33, 56]"] ;
67 -> 75 ;
76 [label="x[2] <= 1.5\ngini = 0.469\nsamples = 88\nvalue = [33, 55]"] ;
75 -> 76 ;
77 [label="x[1] <= 30.75\ngini = 0.471\nsamples = 87\nvalue = [33, 54]"] ;
76 -> 77 ;
78 [label="x[1] <= 30.25\ngini = 0.473\nsamples = 86\nvalue = [33, 53]"] ;
77 -> 78 ;
79 [label="x[2] <= 0.5\ngini = 0.469\nsamples = 85\nvalue = [32, 53]"] ;
78 -> 79 ;
80 [label="x[1] <= 29.5\ngini = 0.455\nsamples = 60\nvalue = [21, 39]"] ;
79 -> 80 ;
81 [label="x[1] <= 28.5\ngini = 0.494\nsamples = 9\nvalue = [4, 5]"] ;
80 -> 81 ;
82 [label="gini = 0.48\nsamples = 5\nvalue = [2, 3]"] ;
81 -> 82 ;
83 [label="gini = 0.5\nsamples = 4\nvalue = [2, 2]"] ;
81 -> 83 ;
84 [label="gini = 0.444\nsamples = 51\nvalue = [17, 34]"] ;
80 -> 84 ;
85 [label="x[1] <= 28.5\ngini = 0.493\nsamples = 25\nvalue = [11.0, 14.0]"] ;
79 -> 85 ;
86 [label="gini = 0.444\nsamples = 3\nvalue = [1, 2]"] ;
85 -> 86 ;
87 [label="x[1] <= inf\ngini = 0.496\nsamples = 22\nvalue = [10, 12]"] ;
85 -> 87 ;
88 [label="x[1] <= 29.5\ngini = 0.5\nsamples = 6\nvalue = [3, 3]"] ;
87 -> 88 ;
89 [label="gini = 0.5\nsamples = 4\nvalue = [2, 2]"] ;
88 -> 89 ;
90 [label="gini = 0.5\nsamples = 2\nvalue = [1, 1]"] ;
88 -> 90 ;
91 [label="gini = 0.492\nsamples = 16\nvalue = [7, 9]"] ;
87 -> 91 ;
92 [label="gini = 0.0\nsamples = 1\nvalue = [1, 0]"] ;
78 -> 92 ;
93 [label="gini = 0.0\nsamples = 1\nvalue = [0, 1]"] ;
77 -> 93 ;
94 [label="gini = 0.0\nsamples = 1\nvalue = [0, 1]"] ;
76 -> 94 ;
95 [label="gini = 0.0\nsamples = 1\nvalue = [0, 1]"] ;
75 -> 95 ;
96 [label="x[1] <= 48.5\ngini = 0.293\nsamples = 112\nvalue = [20, 92]"] ;
2 -> 96 ;
97 [label="x[1] <= 36.5\ngini = 0.326\nsamples = 83\nvalue = [17, 66]"] ;
96 -> 97 ;
98 [label="x[1] <= 31.5\ngini = 0.224\nsamples = 39\nvalue = [5, 34]"] ;
97 -> 98 ;
99 [label="x[2] <= 0.5\ngini = 0.375\nsamples = 8\nvalue = [2, 6]"] ;
98 -> 99 ;
100 [label="gini = 0.32\nsamples = 5\nvalue = [1, 4]"] ;
99 -> 100 ;
101 [label="gini = 0.444\nsamples = 3\nvalue = [1, 2]"] ;
99 -> 101 ;
102 [label="x[2] <= 0.5\ngini = 0.175\nsamples = 31\nvalue = [3, 28]"] ;
98 -> 102 ;
103 [label="x[1] <= 34.5\ngini = 0.266\nsamples = 19\nvalue = [3, 16]"] ;
102 -> 103 ;
104 [label="gini = 0.0\nsamples = 7\nvalue = [0, 7]"] ;
103 -> 104 ;
105 [label="x[1] <= 35.5\ngini = 0.375\nsamples = 12\nvalue = [3, 9]"] ;
103 -> 105 ;
106 [label="gini = 0.375\nsamples = 4\nvalue = [1, 3]"] ;
105 -> 106 ;
107 [label="gini = 0.375\nsamples = 8\nvalue = [2, 6]"] ;
105 -> 107 ;
108 [label="gini = 0.0\nsamples = 12\nvalue = [0, 12]"] ;
102 -> 108 ;
109 [label="x[1] <= 41.5\ngini = 0.397\nsamples = 44\nvalue = [12, 32]"] ;
97 -> 109 ;
110 [label="x[1] <= 40.5\ngini = 0.444\nsamples = 18\nvalue = [6, 12]"] ;
109 -> 110 ;
111 [label="x[1] <= 37.5\ngini = 0.391\nsamples = 15\nvalue = [4, 11]"] ;
110 -> 111 ;
112 [label="x[2] <= 0.5\ngini = 0.5\nsamples = 2\nvalue = [1, 1]"] ;
111 -> 112 ;
113 [label="gini = 0.0\nsamples = 1\nvalue = [1, 0]"] ;
112 -> 113 ;
114 [label="gini = 0.0\nsamples = 1\nvalue = [0, 1]"] ;
112 -> 114 ;
115 [label="x[2] <= 0.5\ngini = 0.355\nsamples = 13\nvalue = [3, 10]"] ;
111 -> 115 ;
116 [label="x[1] <= 39.5\ngini = 0.375\nsamples = 8\nvalue = [2, 6]"] ;
115 -> 116 ;
117 [label="x[1] <= 38.5\ngini = 0.444\nsamples = 6\nvalue = [2, 4]"] ;
116 -> 117 ;
118 [label="gini = 0.375\nsamples = 4\nvalue = [1, 3]"] ;
117 -> 118 ;
119 [label="gini = 0.5\nsamples = 2\nvalue = [1, 1]"] ;
117 -> 119 ;
120 [label="gini = 0.0\nsamples = 2\nvalue = [0, 2]"] ;
116 -> 120 ;
121 [label="x[1] <= 39.5\ngini = 0.32\nsamples = 5\nvalue = [1, 4]"] ;
115 -> 121 ;
122 [label="gini = 0.0\nsamples = 3\nvalue = [0, 3]"] ;
121 -> 122 ;
123 [label="gini = 0.5\nsamples = 2\nvalue = [1, 1]"] ;
121 -> 123 ;
124 [label="gini = 0.444\nsamples = 3\nvalue = [2, 1]"] ;
110 -> 124 ;
125 [label="x[2] <= 0.5\ngini = 0.355\nsamples = 26\nvalue = [6, 20]"] ;
109 -> 125 ;
126 [label="x[1] <= 44.5\ngini = 0.198\nsamples = 9\nvalue = [1, 8]"] ;
125 -> 126 ;
127 [label="gini = 0.0\nsamples = 4\nvalue = [0, 4]"] ;
126 -> 127 ;
128 [label="x[1] <= 46.5\ngini = 0.32\nsamples = 5\nvalue = [1, 4]"] ;
126 -> 128 ;
129 [label="gini = 0.375\nsamples = 4\nvalue = [1, 3]"] ;
128 -> 129 ;
130 [label="gini = 0.0\nsamples = 1\nvalue = [0, 1]"] ;
128 -> 130 ;
131 [label="x[1] <= 44.5\ngini = 0.415\nsamples = 17\nvalue = [5, 12]"] ;
125 -> 131 ;
132 [label="x[1] <= 42.5\ngini = 0.5\nsamples = 4\nvalue = [2, 2]"] ;
131 -> 132 ;
133 [label="gini = 0.0\nsamples = 1\nvalue = [0, 1]"] ;
132 -> 133 ;
134 [label="x[1] <= 43.5\ngini = 0.444\nsamples = 3\nvalue = [2, 1]"] ;
132 -> 134 ;
135 [label="gini = 0.5\nsamples = 2\nvalue = [1, 1]"] ;
134 -> 135 ;
136 [label="gini = 0.0\nsamples = 1\nvalue = [1, 0]"] ;
134 -> 136 ;
137 [label="x[1] <= 47.5\ngini = 0.355\nsamples = 13\nvalue = [3, 10]"] ;
131 -> 137 ;
138 [label="x[1] <= 46.0\ngini = 0.375\nsamples = 8\nvalue = [2, 6]"] ;
137 -> 138 ;
139 [label="gini = 0.375\nsamples = 4\nvalue = [1, 3]"] ;
138 -> 139 ;
140 [label="gini = 0.375\nsamples = 4\nvalue = [1, 3]"] ;
138 -> 140 ;
141 [label="gini = 0.32\nsamples = 5\nvalue = [1, 4]"] ;
137 -> 141 ;
142 [label="x[1] <= 56.5\ngini = 0.185\nsamples = 29\nvalue = [3, 26]"] ;
96 -> 142 ;
143 [label="gini = 0.0\nsamples = 18\nvalue = [0, 18]"] ;
142 -> 143 ;
144 [label="x[1] <= 57.5\ngini = 0.397\nsamples = 11\nvalue = [3, 8]"] ;
142 -> 144 ;
145 [label="gini = 0.0\nsamples = 1\nvalue = [1, 0]"] ;
144 -> 145 ;
146 [label="x[1] <= 59.5\ngini = 0.32\nsamples = 10\nvalue = [2, 8]"] ;
144 -> 146 ;
147 [label="gini = 0.0\nsamples = 2\nvalue = [0, 2]"] ;
146 -> 147 ;
148 [label="x[1] <= 63.5\ngini = 0.375\nsamples = 8\nvalue = [2, 6]"] ;
146 -> 148 ;
149 [label="x[2] <= 0.5\ngini = 0.444\nsamples = 6\nvalue = [2, 4]"] ;
148 -> 149 ;
150 [label="gini = 0.0\nsamples = 1\nvalue = [0, 1]"] ;
149 -> 150 ;
151 [label="x[1] <= 61.5\ngini = 0.48\nsamples = 5\nvalue = [2, 3]"] ;
149 -> 151 ;
152 [label="gini = 0.444\nsamples = 3\nvalue = [1, 2]"] ;
151 -> 152 ;
153 [label="gini = 0.5\nsamples = 2\nvalue = [1, 1]"] ;
151 -> 153 ;
154 [label="gini = 0.0\nsamples = 2\nvalue = [0, 2]"] ;
148 -> 154 ;
155 [label="x[1] <= 16.5\ngini = 0.32\nsamples = 15\nvalue = [12, 3]"] ;
1 -> 155 ;
156 [label="gini = 0.0\nsamples = 12\nvalue = [12, 0]"] ;
155 -> 156 ;
157 [label="gini = 0.0\nsamples = 3\nvalue = [0, 3]"] ;
155 -> 157 ;
158 [label="x[1] <= 3.5\ngini = 0.304\nsamples = 680\nvalue = [553, 127]"] ;
0 -> 158 [labeldistance=2.5, labelangle=-45, headlabel="False"] ;
159 [label="x[2] <= 2.0\ngini = 0.391\nsamples = 15\nvalue = [4, 11]"] ;
158 -> 159 ;
160 [label="x[1] <= 0.792\ngini = 0.165\nsamples = 11\nvalue = [1, 10]"] ;
159 -> 160 ;
161 [label="x[1] <= 0.708\ngini = 0.444\nsamples = 3\nvalue = [1, 2]"] ;
160 -> 161 ;
162 [label="gini = 0.0\nsamples = 2\nvalue = [0, 2]"] ;
161 -> 162 ;
163 [label="gini = 0.0\nsamples = 1\nvalue = [1, 0]"] ;
161 -> 163 ;
164 [label="gini = 0.0\nsamples = 8\nvalue = [0, 8]"] ;
160 -> 164 ;
165 [label="x[1] <= 2.5\ngini = 0.375\nsamples = 4\nvalue = [3, 1]"] ;
159 -> 165 ;
166 [label="gini = 0.0\nsamples = 3\nvalue = [3, 0]"] ;
165 -> 166 ;
167 [label="gini = 0.0\nsamples = 1\nvalue = [0, 1]"] ;
165 -> 167 ;
168 [label="x[1] <= 77.0\ngini = 0.288\nsamples = 665\nvalue = [549, 116]"] ;
158 -> 168 ;
169 [label="x[1] <= 14.25\ngini = 0.286\nsamples = 664\nvalue = [549.0, 115.0]"] ;
168 -> 169 ;
170 [label="x[2] <= 2.5\ngini = 0.444\nsamples = 24\nvalue = [16, 8]"] ;
169 -> 170 ;
171 [label="x[2] <= 0.5\ngini = 0.444\nsamples = 12\nvalue = [4, 8]"] ;
170 -> 171 ;
172 [label="x[1] <= 8.5\ngini = 0.48\nsamples = 5\nvalue = [3, 2]"] ;
171 -> 172 ;
173 [label="gini = 0.0\nsamples = 1\nvalue = [0, 1]"] ;
172 -> 173 ;
174 [label="x[1] <= 13.5\ngini = 0.375\nsamples = 4\nvalue = [3, 1]"] ;
172 -> 174 ;
175 [label="gini = 0.0\nsamples = 2\nvalue = [2, 0]"] ;
174 -> 175 ;
176 [label="gini = 0.5\nsamples = 2\nvalue = [1, 1]"] ;
174 -> 176 ;
177 [label="x[1] <= 6.5\ngini = 0.245\nsamples = 7\nvalue = [1, 6]"] ;
171 -> 177 ;
178 [label="x[1] <= 5.0\ngini = 0.5\nsamples = 2\nvalue = [1, 1]"] ;
177 -> 178 ;
179 [label="gini = 0.0\nsamples = 1\nvalue = [0, 1]"] ;
178 -> 179 ;
180 [label="gini = 0.0\nsamples = 1\nvalue = [1, 0]"] ;
178 -> 180 ;
181 [label="gini = 0.0\nsamples = 5\nvalue = [0, 5]"] ;
177 -> 181 ;
182 [label="gini = 0.0\nsamples = 12\nvalue = [12, 0]"] ;
170 -> 182 ;
183 [label="x[1] <= 18.75\ngini = 0.278\nsamples = 640\nvalue = [533, 107]"] ;
169 -> 183 ;
184 [label="x[1] <= 17.5\ngini = 0.102\nsamples = 37\nvalue = [35, 2]"] ;
183 -> 184 ;
185 [label="x[2] <= 0.5\ngini = 0.172\nsamples = 21\nvalue = [19, 2]"] ;
184 -> 185 ;
186 [label="x[1] <= 16.5\ngini = 0.26\nsamples = 13\nvalue = [11, 2]"] ;
185 -> 186 ;
187 [label="gini = 0.278\nsamples = 6\nvalue = [5, 1]"] ;
186 -> 187 ;
188 [label="gini = 0.245\nsamples = 7\nvalue = [6, 1]"] ;
186 -> 188 ;
189 [label="gini = 0.0\nsamples = 8\nvalue = [8, 0]"] ;
185 -> 189 ;
190 [label="gini = 0.0\nsamples = 16\nvalue = [16, 0]"] ;
184 -> 190 ;
191 [label="x[1] <= 62.5\ngini = 0.288\nsamples = 603\nvalue = [498.0, 105.0]"] ;
183 -> 191 ;
192 [label="x[1] <= 47.5\ngini = 0.293\nsamples = 590\nvalue = [485, 105]"] ;
191 -> 192 ;
193 [label="x[1] <= 45.25\ngini = 0.283\nsamples = 533\nvalue = [442, 91]"] ;
192 -> 193 ;
194 [label="x[1] <= 32.25\ngini = 0.29\nsamples = 518\nvalue = [427, 91]"] ;
193 -> 194 ;
195 [label="x[1] <= 28.75\ngini = 0.319\nsamples = 246\nvalue = [197, 49]"] ;
194 -> 195 ;
196 [label="x[1] <= 27.5\ngini = 0.28\nsamples = 190\nvalue = [158, 32]"] ;
195 -> 196 ;
197 [label="x[2] <= 1.5\ngini = 0.3\nsamples = 169\nvalue = [138, 31]"] ;
196 -> 197 ;
198 [label="x[2] <= 0.5\ngini = 0.311\nsamples = 161\nvalue = [130, 31]"] ;
197 -> 198 ;
199 [label="x[1] <= 26.75\ngini = 0.291\nsamples = 136\nvalue = [112, 24]"] ;
198 -> 199 ;
200 [label="x[1] <= 21.5\ngini = 0.276\nsamples = 121\nvalue = [101, 20]"] ;
199 -> 200 ;
201 [label="x[1] <= 19.5\ngini = 0.32\nsamples = 50\nvalue = [40, 10]"] ;
200 -> 201 ;
202 [label="gini = 0.26\nsamples = 13\nvalue = [11, 2]"] ;
201 -> 202 ;
203 [label="x[1] <= 20.5\ngini = 0.339\nsamples = 37\nvalue = [29, 8]"] ;
201 -> 203 ;
204 [label="gini = 0.355\nsamples = 13\nvalue = [10, 3]"] ;
203 -> 204 ;
205 [label="gini = 0.33\nsamples = 24\nvalue = [19, 5]"] ;
203 -> 205 ;
206 [label="x[1] <= 22.5\ngini = 0.242\nsamples = 71\nvalue = [61, 10]"] ;
200 -> 206 ;
207 [label="gini = 0.117\nsamples = 16\nvalue = [15, 1]"] ;
206 -> 207 ;
208 [label="x[1] <= 26.25\ngini = 0.274\nsamples = 55\nvalue = [46, 9]"] ;
206 -> 208 ;
209 [label="x[1] <= 24.75\ngini = 0.278\nsamples = 54\nvalue = [45, 9]"] ;
208 -> 209 ;
210 [label="x[1] <= 24.25\ngini = 0.252\nsamples = 27\nvalue = [23, 4]"] ;
209 -> 210 ;
211 [label="x[1] <= 23.25\ngini = 0.26\nsamples = 26\nvalue = [22, 4]"] ;
210 -> 211 ;
212 [label="gini = 0.278\nsamples = 12\nvalue = [10, 2]"] ;
211 -> 212 ;
213 [label="x[1] <= 23.75\ngini = 0.245\nsamples = 14\nvalue = [12, 2]"] ;
211 -> 213 ;
214 [label="gini = 0.0\nsamples = 1\nvalue = [1, 0]"] ;
213 -> 214 ;
215 [label="gini = 0.26\nsamples = 13\nvalue = [11, 2]"] ;
213 -> 215 ;
216 [label="gini = 0.0\nsamples = 1\nvalue = [1, 0]"] ;
210 -> 216 ;
217 [label="x[1] <= 25.5\ngini = 0.302\nsamples = 27\nvalue = [22, 5]"] ;
209 -> 217 ;
218 [label="gini = 0.337\nsamples = 14\nvalue = [11, 3]"] ;
217 -> 218 ;
219 [label="gini = 0.26\nsamples = 13\nvalue = [11, 2]"] ;
217 -> 219 ;
220 [label="gini = 0.0\nsamples = 1\nvalue = [1, 0]"] ;
208 -> 220 ;
221 [label="gini = 0.391\nsamples = 15\nvalue = [11, 4]"] ;
199 -> 221 ;
222 [label="x[1] <= 26.5\ngini = 0.403\nsamples = 25\nvalue = [18.0, 7.0]"] ;
198 -> 222 ;
223 [label="x[1] <= 23.5\ngini = 0.434\nsamples = 22\nvalue = [15.0, 7.0]"] ;
222 -> 223 ;
224 [label="x[1] <= 20.5\ngini = 0.32\nsamples = 10\nvalue = [8, 2]"] ;
223 -> 224 ;
225 [label="x[1] <= 19.5\ngini = 0.5\nsamples = 4\nvalue = [2, 2]"] ;
224 -> 225 ;
226 [label="gini = 0.0\nsamples = 2\nvalue = [2, 0]"] ;
225 -> 226 ;
227 [label="gini = 0.0\nsamples = 2\nvalue = [0, 2]"] ;
225 -> 227 ;
228 [label="gini = 0.0\nsamples = 6\nvalue = [6, 0]"] ;
224 -> 228 ;
229 [label="x[1] <= 24.5\ngini = 0.486\nsamples = 12\nvalue = [7, 5]"] ;
223 -> 229 ;
230 [label="gini = 0.444\nsamples = 3\nvalue = [2, 1]"] ;
229 -> 230 ;
231 [label="x[1] <= 25.5\ngini = 0.494\nsamples = 9\nvalue = [5, 4]"] ;
229 -> 231 ;
232 [label="gini = 0.5\nsamples = 6\nvalue = [3, 3]"] ;
231 -> 232 ;
233 [label="gini = 0.444\nsamples = 3\nvalue = [2, 1]"] ;
231 -> 233 ;
234 [label="gini = 0.0\nsamples = 3\nvalue = [3, 0]"] ;
222 -> 234 ;
235 [label="gini = 0.0\nsamples = 8\nvalue = [8, 0]"] ;
197 -> 235 ;
236 [label="x[1] <= 28.25\ngini = 0.091\nsamples = 21\nvalue = [20, 1]"] ;
196 -> 236 ;
237 [label="x[2] <= 0.5\ngini = 0.105\nsamples = 18\nvalue = [17, 1]"] ;
236 -> 237 ;
238 [label="gini = 0.124\nsamples = 15\nvalue = [14, 1]"] ;
237 -> 238 ;
239 [label="gini = 0.0\nsamples = 3\nvalue = [3, 0]"] ;
237 -> 239 ;
240 [label="gini = 0.0\nsamples = 3\nvalue = [3, 0]"] ;
236 -> 240 ;
241 [label="x[2] <= 0.5\ngini = 0.423\nsamples = 56\nvalue = [39, 17]"] ;
195 -> 241 ;
242 [label="x[1] <= 29.5\ngini = 0.455\nsamples = 40\nvalue = [26, 14]"] ;
241 -> 242 ;
243 [label="gini = 0.5\nsamples = 8\nvalue = [4, 4]"] ;
242 -> 243 ;
244 [label="x[1] <= 30.75\ngini = 0.43\nsamples = 32\nvalue = [22, 10]"] ;
242 -> 244 ;
245 [label="x[1] <= 30.25\ngini = 0.26\nsamples = 13\nvalue = [11, 2]"] ;
244 -> 245 ;
246 [label="gini = 0.278\nsamples = 12\nvalue = [10, 2]"] ;
245 -> 246 ;
247 [label="gini = 0.0\nsamples = 1\nvalue = [1, 0]"] ;
245 -> 247 ;
248 [label="x[1] <= 31.5\ngini = 0.488\nsamples = 19\nvalue = [11, 8]"] ;
244 -> 248 ;
249 [label="gini = 0.49\nsamples = 7\nvalue = [4, 3]"] ;
248 -> 249 ;
250 [label="gini = 0.486\nsamples = 12\nvalue = [7, 5]"] ;
248 -> 250 ;
251 [label="x[2] <= 2.5\ngini = 0.305\nsamples = 16\nvalue = [13, 3]"] ;
241 -> 251 ;
252 [label="x[1] <= 29.5\ngini = 0.245\nsamples = 14\nvalue = [12, 2]"] ;
251 -> 252 ;
253 [label="gini = 0.0\nsamples = 3\nvalue = [3, 0]"] ;
252 -> 253 ;
254 [label="x[1] <= 31.5\ngini = 0.298\nsamples = 11\nvalue = [9, 2]"] ;
252 -> 254 ;
255 [label="x[1] <= 30.5\ngini = 0.32\nsamples = 10\nvalue = [8, 2]"] ;
254 -> 255 ;
256 [label="gini = 0.278\nsamples = 6\nvalue = [5, 1]"] ;
255 -> 256 ;
257 [label="gini = 0.375\nsamples = 4\nvalue = [3, 1]"] ;
255 -> 257 ;
258 [label="gini = 0.0\nsamples = 1\nvalue = [1, 0]"] ;
254 -> 258 ;
259 [label="x[1] <= 30.0\ngini = 0.5\nsamples = 2\nvalue = [1, 1]"] ;
251 -> 259 ;
260 [label="gini = 0.0\nsamples = 1\nvalue = [0, 1]"] ;
259 -> 260 ;
261 [label="gini = 0.0\nsamples = 1\nvalue = [1, 0]"] ;
259 -> 261 ;
262 [label="x[1] <= 34.75\ngini = 0.261\nsamples = 272\nvalue = [230, 42]"] ;
194 -> 262 ;
263 [label="x[1] <= 33.5\ngini = 0.083\nsamples = 23\nvalue = [22, 1]"] ;
262 -> 263 ;
264 [label="gini = 0.0\nsamples = 12\nvalue = [12, 0]"] ;
263 -> 264 ;
265 [label="x[2] <= 0.5\ngini = 0.165\nsamples = 11\nvalue = [10, 1]"] ;
263 -> 265 ;
266 [label="x[1] <= 34.25\ngini = 0.245\nsamples = 7\nvalue = [6, 1]"] ;
265 -> 266 ;
267 [label="gini = 0.278\nsamples = 6\nvalue = [5, 1]"] ;
266 -> 267 ;
268 [label="gini = 0.0\nsamples = 1\nvalue = [1, 0]"] ;
266 -> 268 ;
269 [label="gini = 0.0\nsamples = 4\nvalue = [4, 0]"] ;
265 -> 269 ;
270 [label="x[1] <= 44.5\ngini = 0.275\nsamples = 249\nvalue = [208, 41]"] ;
262 -> 270 ;
271 [label="x[1] <= 37.5\ngini = 0.269\nsamples = 244\nvalue = [205, 39]"] ;
270 -> 271 ;
272 [label="x[2] <= 1.5\ngini = 0.35\nsamples = 31\nvalue = [24, 7]"] ;
271 -> 272 ;
273 [label="x[1] <= 36.25\ngini = 0.358\nsamples = 30\nvalue = [23, 7]"] ;
272 -> 273 ;
274 [label="x[2] <= 0.5\ngini = 0.33\nsamples = 24\nvalue = [19, 5]"] ;
273 -> 274 ;
275 [label="x[1] <= 35.5\ngini = 0.363\nsamples = 21\nvalue = [16, 5]"] ;
274 -> 275 ;
276 [label="gini = 0.298\nsamples = 11\nvalue = [9, 2]"] ;
275 -> 276 ;
277 [label="gini = 0.42\nsamples = 10\nvalue = [7, 3]"] ;
275 -> 277 ;
278 [label="gini = 0.0\nsamples = 3\nvalue = [3, 0]"] ;
274 -> 278 ;
279 [label="x[2] <= 0.5\ngini = 0.444\nsamples = 6\nvalue = [4, 2]"] ;
273 -> 279 ;
280 [label="gini = 0.0\nsamples = 2\nvalue = [2, 0]"] ;
279 -> 280 ;
281 [label="x[1] <= 36.75\ngini = 0.5\nsamples = 4\nvalue = [2, 2]"] ;
279 -> 281 ;
282 [label="gini = 0.0\nsamples = 1\nvalue = [0, 1]"] ;
281 -> 282 ;
283 [label="gini = 0.444\nsamples = 3\nvalue = [2, 1]"] ;
281 -> 283 ;
284 [label="gini = 0.0\nsamples = 1\nvalue = [1, 0]"] ;
272 -> 284 ;
285 [label="x[2] <= 5.0\ngini = 0.255\nsamples = 213\nvalue = [181, 32]"] ;
271 -> 285 ;
286 [label="x[2] <= 0.5\ngini = 0.259\nsamples = 209\nvalue = [177, 32]"] ;
285 -> 286 ;
287 [label="x[1] <= 38.75\ngini = 0.246\nsamples = 174\nvalue = [149, 25]"] ;
286 -> 287 ;
288 [label="gini = 0.0\nsamples = 6\nvalue = [6, 0]"] ;
287 -> 288 ;
289 [label="x[1] <= 39.5\ngini = 0.253\nsamples = 168\nvalue = [143, 25]"] ;
287 -> 289 ;
290 [label="gini = 0.375\nsamples = 8\nvalue = [6, 2]"] ;
289 -> 290 ;
291 [label="x[1] <= 41.5\ngini = 0.246\nsamples = 160\nvalue = [137, 23]"] ;
289 -> 291 ;
292 [label="x[1] <= 40.25\ngini = 0.153\nsamples = 12\nvalue = [11, 1]"] ;
291 -> 292 ;
293 [label="gini = 0.278\nsamples = 6\nvalue = [5, 1]"] ;
292 -> 293 ;
294 [label="gini = 0.0\nsamples = 6\nvalue = [6, 0]"] ;
292 -> 294 ;
295 [label="x[1] <= 42.5\ngini = 0.253\nsamples = 148\nvalue = [126, 22]"] ;
291 -> 295 ;
296 [label="gini = 0.32\nsamples = 10\nvalue = [8, 2]"] ;
295 -> 296 ;
297 [label="x[1] <= 43.5\ngini = 0.248\nsamples = 138\nvalue = [118, 20]"] ;
295 -> 297 ;
298 [label="gini = 0.0\nsamples = 3\nvalue = [3, 0]"] ;
297 -> 298 ;
299 [label="gini = 0.252\nsamples = 135\nvalue = [115, 20]"] ;
297 -> 299 ;
300 [label="x[1] <= 38.5\ngini = 0.32\nsamples = 35\nvalue = [28, 7]"] ;
286 -> 300 ;
301 [label="gini = 0.0\nsamples = 1\nvalue = [0, 1]"] ;
300 -> 301 ;
302 [label="x[1] <= 41.5\ngini = 0.291\nsamples = 34\nvalue = [28, 6]"] ;
300 -> 302 ;
303 [label="gini = 0.0\nsamples = 8\nvalue = [8, 0]"] ;
302 -> 303 ;
304 [label="x[1] <= 43.5\ngini = 0.355\nsamples = 26\nvalue = [20, 6]"] ;
302 -> 304 ;
305 [label="x[1] <= 42.5\ngini = 0.375\nsamples = 24\nvalue = [18, 6]"] ;
304 -> 305 ;
306 [label="x[2] <= 1.5\ngini = 0.351\nsamples = 22\nvalue = [17, 5]"] ;
305 -> 306 ;
307 [label="gini = 0.332\nsamples = 19\nvalue = [15, 4]"] ;
306 -> 307 ;
308 [label="gini = 0.444\nsamples = 3\nvalue = [2, 1]"] ;
306 -> 308 ;
309 [label="gini = 0.5\nsamples = 2\nvalue = [1, 1]"] ;
305 -> 309 ;
310 [label="gini = 0.0\nsamples = 2\nvalue = [2, 0]"] ;
304 -> 310 ;
311 [label="gini = 0.0\nsamples = 4\nvalue = [4, 0]"] ;
285 -> 311 ;
312 [label="gini = 0.48\nsamples = 5\nvalue = [3, 2]"] ;
270 -> 312 ;
313 [label="gini = 0.0\nsamples = 15\nvalue = [15, 0]"] ;
193 -> 313 ;
314 [label="x[1] <= 49.5\ngini = 0.371\nsamples = 57\nvalue = [43, 14]"] ;
192 -> 314 ;
315 [label="x[2] <= 0.5\ngini = 0.5\nsamples = 12\nvalue = [6, 6]"] ;
314 -> 315 ;
316 [label="x[1] <= 48.5\ngini = 0.444\nsamples = 6\nvalue = [4, 2]"] ;
315 -> 316 ;
317 [label="gini = 0.444\nsamples = 3\nvalue = [2, 1]"] ;
316 -> 317 ;
318 [label="gini = 0.444\nsamples = 3\nvalue = [2, 1]"] ;
316 -> 318 ;
319 [label="x[1] <= 48.5\ngini = 0.444\nsamples = 6\nvalue = [2, 4]"] ;
315 -> 319 ;
320 [label="gini = 0.0\nsamples = 2\nvalue = [0, 2]"] ;
319 -> 320 ;
321 [label="gini = 0.5\nsamples = 4\nvalue = [2, 2]"] ;
319 -> 321 ;
322 [label="x[2] <= 1.5\ngini = 0.292\nsamples = 45\nvalue = [37, 8]"] ;
314 -> 322 ;
323 [label="x[1] <= 50.5\ngini = 0.268\nsamples = 44\nvalue = [37, 7]"] ;
322 -> 323 ;
324 [label="gini = 0.0\nsamples = 6\nvalue = [6, 0]"] ;
323 -> 324 ;
325 [label="x[1] <= 53.5\ngini = 0.301\nsamples = 38\nvalue = [31, 7]"] ;
323 -> 325 ;
326 [label="x[1] <= 52.5\ngini = 0.469\nsamples = 8\nvalue = [5, 3]"] ;
325 -> 326 ;
327 [label="x[2] <= 0.5\ngini = 0.408\nsamples = 7\nvalue = [5, 2]"] ;
326 -> 327 ;
328 [label="x[1] <= 51.5\ngini = 0.444\nsamples = 6\nvalue = [4, 2]"] ;
327 -> 328 ;
329 [label="gini = 0.375\nsamples = 4\nvalue = [3, 1]"] ;
328 -> 329 ;
330 [label="gini = 0.5\nsamples = 2\nvalue = [1, 1]"] ;
328 -> 330 ;
331 [label="gini = 0.0\nsamples = 1\nvalue = [1, 0]"] ;
327 -> 331 ;
332 [label="gini = 0.0\nsamples = 1\nvalue = [0, 1]"] ;
326 -> 332 ;
333 [label="x[2] <= 0.5\ngini = 0.231\nsamples = 30\nvalue = [26, 4]"] ;
325 -> 333 ;
334 [label="x[1] <= 61.5\ngini = 0.165\nsamples = 22\nvalue = [20, 2]"] ;
333 -> 334 ;
335 [label="x[1] <= 56.5\ngini = 0.1\nsamples = 19\nvalue = [18, 1]"] ;
334 -> 335 ;
336 [label="x[1] <= 55.75\ngini = 0.198\nsamples = 9\nvalue = [8, 1]"] ;
335 -> 336 ;
337 [label="gini = 0.0\nsamples = 7\nvalue = [7, 0]"] ;
336 -> 337 ;
338 [label="gini = 0.5\nsamples = 2\nvalue = [1, 1]"] ;
336 -> 338 ;
339 [label="gini = 0.0\nsamples = 10\nvalue = [10, 0]"] ;
335 -> 339 ;
340 [label="gini = 0.444\nsamples = 3\nvalue = [2, 1]"] ;
334 -> 340 ;
341 [label="x[1] <= 54.5\ngini = 0.375\nsamples = 8\nvalue = [6, 2]"] ;
333 -> 341 ;
342 [label="gini = 0.5\nsamples = 2\nvalue = [1, 1]"] ;
341 -> 342 ;
343 [label="x[1] <= 58.5\ngini = 0.278\nsamples = 6\nvalue = [5, 1]"] ;
341 -> 343 ;
344 [label="gini = 0.0\nsamples = 3\nvalue = [3, 0]"] ;
343 -> 344 ;
345 [label="x[1] <= 60.5\ngini = 0.444\nsamples = 3\nvalue = [2, 1]"] ;
343 -> 345 ;
346 [label="gini = 0.5\nsamples = 2\nvalue = [1, 1]"] ;
345 -> 346 ;
347 [label="gini = 0.0\nsamples = 1\nvalue = [1, 0]"] ;
345 -> 347 ;
348 [label="gini = 0.0\nsamples = 1\nvalue = [0, 1]"] ;
322 -> 348 ;
349 [label="gini = 0.0\nsamples = 13\nvalue = [13, 0]"] ;
191 -> 349 ;
350 [label="gini = 0.0\nsamples = 1\nvalue = [0, 1]"] ;
168 -> 350 ;
}